digraph Tree {
node [shape=box, style="filled", color="black"] ;
0 [label="Petal.Width <= 0.75\ngini = 0.665\nsamples = 135\nvalue = [41, 47, 47]", fillcolor="#ffffff"] ;
1 [label="gini = 0.0\nsamples = 41\nvalue = [41, 0, 0]", fillcolor="#e58139"] ;
0 -> 1 [labeldistance=2.5, labelangle=45, headlabel="True"] ;
2 [label="Petal.Width <= 1.75\ngini = 0.5\nsamples = 94\nvalue = [0, 47, 47]", fillcolor="#ffffff"] ;
0 -> 2 [labeldistance=2.5, labelangle=-45, headlabel="False"] ;
3 [label="Petal.Length <= 4.95\ngini = 0.177\nsamples = 51\nvalue = [0, 46, 5]", fillcolor="#4fe88f"] ;
2 -> 3 ;
4 [label="Petal.Width <= 1.65\ngini = 0.043\nsamples = 45\nvalue = [0, 44, 1]", fillcolor="#3de684"] ;
3 -> 4 ;
5 [label="(...)", fillcolor="#C0C0C0"] ;
4 -> 5 ;
6 [label="(...)", fillcolor="#C0C0C0"] ;
4 -> 6 ;
7 [label="Petal.Width <= 1.55\ngini = 0.444\nsamples = 6\nvalue = [0, 2, 4]", fillcolor="#c09cf2"] ;
3 -> 7 ;
8 [label="(...)", fillcolor="#C0C0C0"] ;
7 -> 8 ;
9 [label="(...)", fillcolor="#C0C0C0"] ;
7 -> 9 ;
12 [label="Petal.Length <= 4.85\ngini = 0.045\nsamples = 43\nvalue = [0, 1, 42]", fillcolor="#843ee6"] ;
2 -> 12 ;
13 [label="Sepal.Width <= 3.1\ngini = 0.444\nsamples = 3\nvalue = [0, 1, 2]", fillcolor="#c09cf2"] ;
12 -> 13 ;
14 [label="(...)", fillcolor="#C0C0C0"] ;
13 -> 14 ;
15 [label="(...)", fillcolor="#C0C0C0"] ;
13 -> 15 ;
16 [label="gini = 0.0\nsamples = 40\nvalue = [0, 0, 40]", fillcolor="#8139e5"] ;
12 -> 16 ;
}